{
  "layersSizes": [
    784,
    104,
    10
  ],
  "layers": [
    {
      "weights": [
        [
          -0.8316135282465846,
          -0.2732239860006067,
          0.4086496799929282,
          0.8425879502384301,
          -0.44605824962146956,
          0.8809817712541417,
          0.5720971814360403,
          -0.179387732439094,
          0.1368961797203414,
          0.4871352378615392,
          -0.4300359718795068,
          -0.88363219024997,
          -0.2583577400083925,
          0.08937283929743067,
          -0.7792080138739239,
          0.20729709143330605,
          1.0044394148362614,
          -0.06654507607938802,
          -0.6493255641183252,
          -0.3757279894159507,
          0.1305951882644733,
          0.3438013717320732,
          0.3624896852712033,
          -0.9313724031823098,
          0.6676069408272038,
          0.21941524898756626,
          0.10942382307378917,
          0.801094044576129,
          0.412518229593724,
          -0.07700010725353845,
          -0.5822603781065618,
          -0.6217492937939131,
          0.5169040628063897,
          -0.9609334550215527,
          -0.45978677082122577,
          0.9236931112760587,
          0.0009158132615669778,
          -0.3972780155005995,
          -0.4048691253557736,
          0.12784324866803404,
          0.018269314868313385,
          0.24131123615514746,
          -0.1742161299792201,
          0.2893592956513441,
          0.9617663212217711,
          -0.00557338674084044,
          -0.12242107379019729,
          0.7528226116112334,
          0.9006857549263383,
          -0.023276372354342847,
          0.3601863928576154,
          -0.10661023808013058,
          0.1924151700635303,
          -0.7053339930983018,
          0.16100267355953957,
          -0.07184391479801011,
          -0.3019223855352551,
          -0.5562391063632925,
          0.598875445489977,
          0.5929954643867039,
          -0.7095369972036716,
          -0.9825809179451919,
          -0.41815413773720733,
          -0.5553056144535757,
          -0.6443554581620967,
          -0.29440514133440115,
          0.115395850426867,
          -0.7141953878017033,
          -0.8939221603355338,
          0.7281573782285565,
          -0.04082719808151937,
          -0.10785312974381597,
          -0.4502046997425096,
          -0.3556773885508274,
          -0.4115059232913673,
          -0.695542888759376,
          0.40818928255291803,
          0.7763413312949677,
          0.36712110870828957,
          0.9082699846262333,
          0.18855523856606,
          0.7655190341427601,
          -0.44922799007951353,
          -0.7806382831322636,
          -0.4669136718449636,
          -0.9803282370100708,
          -0.28844902135983963,
          0.5678373735801392,
          -0.5133188535068078,
          0.24822459474986847,
          -0.633803234138747,
          -0.7511473458711739,
          0.6377183432035928,
          0.4152744994129061,
          0.5820487680900882,
          -0.42556724482248187,
          0.2349544378622671,
          -0.6651133637616733,
          -0.158459893835827,
          -0.024434604683744053,
          0.06167542613573241,
          1.0450158946431414,
          0.32772887869004597,
          0.7707593973058764,
          -0.6371013490753155,
          -0.23096474985425658,
          0.001879002409575131,
          -0.0941924962924812,
          -0.23391661057223406,
          0.5998636350072774,
          -0.442098167169132,
          0.3038602296862778,
          -0.6818640742370281,
          -0.529956174583567,
          0.4005703105035816,
          -0.3242230777974271,
          -0.5264559149241315,
          0.335648000314833,
          -0.7319446316524214,
          -0.5857683223631499,
          -0.9463582836617002,
          -0.80561199191686,
          -0.6189962951716076,
          0.7918462526301178,
          -0.6660370447069239,
          0.24057145952361614,
          0.5607168401683377,
          0.5537795429651204,
          0.8729802358800759,
          -0.4224951245426858,
          0.11061361199060288,
          -0.6762756499215047,
          0.018123767997450368,
          0.7802007460746276,
          0.6190192783515323,
          -0.24803971652581827,
          0.7800210601890482,
          -0.7103776097805807,
          -0.9888902193335598,
          0.08717982432304172,
          -0.08639431119814533,
          0.37134321063743325,
          0.5142264614529917,
          0.9724840094583649,
          -0.773556439830092,
          -0.9523499248340825,
          -0.9461819656525681,
          -0.18258929022745957,
          0.5340982857486676,
          -0.36851373430678086,
          0.21610172880257236,
          1.0320668210223185,
          0.5090491185644804,
          -0.1812060112071949,
          -0.3849444230178473,
          0.11884026796237909,
          -0.1057511191053732,
          0.055530045266876396,
          -0.48506356341426365,
          -0.036656228653361975,
          0.4330169995705797,
          0.5685776819713568,
          -0.04751822727557242,
          -0.9429412701431756,
          -0.5481109781114509,
          0.5097560600895784,
          -0.9019081708797954,
          0.7155819134830685,
          -0.5750522898062842,
          0.08875260374349825,
          0.20128658877749173,
          -0.12119522421799678,
          0.23761092855810695,
          0.9074888473780218,
          -0.6063338011273113,
          0.698226046188856,
          0.7915014792636876,
          0.828296102763696,
          0.6517944953869291,
          1.1413661564877187,
          -0.006637839711775998,
          -0.324236005694817,
          -0.2929549428745543,
          0.5195101429784373,
          -0.4625443768895647,
          -0.1323300913899452,
          -0.7656138737893763,
          0.25088616805650726,
          -0.135459822887095,
          -0.7848779322061399,
          0.7592913308428545,
          0.04958368158714945,
          -0.42475859084812695,
          0.6763212133313777,
          0.7119808912288303,
          -0.9585473467635488,
          0.874301479682142,
          -0.25849516288652685,
          -0.5836719234545091,
          0.06507918607955032,
          0.0343201695740456,
          0.697883566274415,
          0.5170644403045385,
          -0.7929452547810837,
          -0.0011327991310131113,
          0.40755242247160645,
          1.0998820073744369,
          0.506182625701406,
          1.0744171432564467,
          -0.11616837994314361,
          0.8414690160314069,
          0.4441240448193634,
          0.40281115573635534,
          -0.5142820478793818,
          0.11890097668815915,
          0.5755071678379814,
          -1.254817863340227,
          0.23991480021990033,
          0.6940341905787316,
          -0.06826328851274968,
          0.4543134712619056,
          0.006831610681073797,
          -0.14100678899316216,
          -0.6066947303426649,
          0.30802821426945526,
          -0.6349666752263698,
          0.8235910839837945,
          -0.6663911516012928,
          0.04442102319138197,
          -0.09430674003054307,
          -0.13278205406184093,
          0.9785349896640062,
          0.9530124616195355,
          1.0445632746155025,
          0.9730097313614121,
          0.6420488529902137,
          0.38946923043435777,
          -0.5064923979581089,
          -1.040854740968432,
          0.31316383424330274,
          0.25124956405003357,
          0.6826898358584612,
          -0.7851410436054358,
          0.013507477954421952,
          -1.1288944401119376,
          -1.1119181449418978,
          0.737498445336661,
          0.09601047151574071,
          -0.38540911845595743,
          -0.9913489368502054,
          0.0931784452292496,
          -0.7099733145312302,
          -0.9873565046060326,
          -0.9519085550002062,
          -0.7999202924342379,
          0.030146982870954186,
          -0.38081823818474847,
          -0.22606245488708954,
          -0.8617578527090116,
          0.5656045713010458,
          -0.7092101756915535,
          1.007873739622783,
          0.36268032849343523,
          1.2233301165719104,
          -0.3699373678091248,
          -1.07959444604448,
          -0.3690805954774242,
          -0.7179083568642068,
          0.550999772937033,
          0.6169711355509406,
          -0.5131588367305608,
          -0.9849401427221511,
          0.07742721534650292,
          0.40777408831640255,
          -0.7860342386043362,
          0.13145503725941438,
          0.6614709072000071,
          0.6446526026034152,
          0.8652325176296272,
          0.8877225439578149,
          0.9508592824080226,
          -0.12409079703314463,
          -0.65388187216799,
          -0.9237753548012622,
          -0.428211349308413,
          0.7056853255335733,
          -0.7049890423837216,
          -0.35345579508114033,
          0.3254604533797548,
          0.8461987870407096,
          -0.12831467062388147,
          0.9681748093470106,
          0.5400951866463332,
          0.1940975138286949,
          -0.848501923956708,
          0.1709838598978601,
          -0.8398802346967792,
          0.41636133471510645,
          0.2350400825320368,
          -0.6712052409497292,
          0.15010263545026223,
          0.2824554789003254,
          0.5239626408114861,
          -0.013834713430806105,
          -0.960541043521171,
          0.3008598157768327,
          -0.19172895397110867,
          0.9112937241995849,
          -0.9599371981971312,
          0.42154533021935725,
          -0.5120650393617585,
          -0.08303284750221485,
          0.034604027191689646,
          -0.7585269932841842,
          0.15553389542062643,
          -1.0682593910315101,
          -0.7444364750787095,
          -0.3509286634105079,
          -0.820646506506211,
          0.7317275921922505,
          -0.2639690961726972,
          -0.9247051283038369,
          -0.8260385179217601,
          0.25945517314939776,
          0.03234185569937847,
          -0.2559752030896754,
          0.7101971668687674,
          0.410060182253365,
          -0.45895724534002386,
          -0.007986801069924838,
          -0.5867393910278738,
          -0.2827694969267798,
          -0.30944921291260885,
          0.37419312515257525,
          -0.1355684695337763,
          -0.8694344408833277,
          -0.7497271892748896,
          0.7826625898847648,
          0.6644642512981296,
          -0.9262999963958216,
          0.7569298406388636,
          0.6055194810480696,
          -0.051570155552603886,
          0.5646021832238726,
          -0.044852080207076206,
          -0.8913306147002478,
          -0.7900778266297745,
          -0.7146886218924342,
          -0.051769674591959775,
          -0.31900580043918586,
          -0.9209690229500715,
          -0.19471544373382565,
          0.0994305217489466,
          0.6706025263642965,
          -0.9029903874786404,
          0.7072960513952777,
          -0.39871686269666823,
          0.10178491422531044,
          -0.039470606518921196,
          -0.6439545942718192,
          0.13207500350272605,
          -0.7432691545583878,
          0.4510295302758818,
          0.6551265497934323,
          0.9391583376721364,
          0.7844461924492929,
          0.8607001178517248,
          -0.2329846840062304,
          -0.08578803132679094,
          0.8538562655293798,
          -0.29606070917460003,
          0.7451786617519172,
          0.32736579707707375,
          -0.8766345409881656,
          -0.24011446396522723,
          -1.1421579446418197,
          -0.39323346120485275,
          -1.3362504274664664,
          -0.7692615445301896,
          -0.7563018947364815,
          0.3932380031384587,
          0.3718077003979248,
          0.2425781109206242,
          -0.20169675602935525,
          -0.7960126700402603,
          -0.1645095673340763,
          -0.6260408836577086,
          0.8752668437622733,
          -0.1500856111018975,
          0.1885696740929594,
          0.6866879303727965,
          0.7638168662225497,
          -0.9027988813772869,
          0.5321233492723345,
          0.6346915003977931,
          -0.7719528599932253,
          0.010533764379343424,
          0.6498213966246731,
          -0.5330910832363641,
          0.6916125942141681,
          0.052252582822247554,
          -0.8561959383956534,
          0.2578537748238487,
          -0.6494343554139416,
          -0.03913803665741153,
          -1.068895379764947,
          -0.36740111061608477,
          -0.37457962154354607,
          -0.7211226281014465,
          0.004100074411334646,
          -1.067849928516008,
          -0.10183482286508226,
          0.380845578733392,
          0.15955581575697436,
          -0.7956475393977285,
          0.19209874883303557,
          -0.8066757257082048,
          0.5167742384300135,
          -0.9890676400271003,
          -0.6948370205207153,
          -0.8870489183283703,
          -0.0001904154314948947,
          0.28610797699359836,
          0.6100163659558104,
          -0.9712679960871061,
          0.030060073935660236,
          -0.3715515497631505,
          -0.8339865819270268,
          -0.27764146778565774,
          -0.697868132260361,
          -0.06169097220848704,
          -0.23715992824629267,
          0.14302023490317797,
          0.18585222240212015,
          -0.20140233881617425,
          0.029976883934067732,
          -0.42977021707295027,
          0.7622925440096943,
          0.698062739366294,
          -0.0066822750577558675,
          0.06571159286864704,
          0.931200971109279,
          -0.630532540024386,
          0.1180272281338986,
          -0.4597936393276602,
          0.06083926531559656,
          0.6370255166246893,
          0.26766782468125955,
          -0.7147586624791584,
          0.8759478461890193,
          -0.5758343014508198,
          0.531786443920168,
          -0.5003358090551162,
          0.7945573773677507,
          -0.6544064281592233,
          -0.4025926402379672,
          0.7164965964143464,
          0.10427641205464233,
          -0.680487812422842,
          0.5857647431112316,
          0.7142005769142917,
          0.4746489310075441,
          -0.016907363935851055,
          0.5675673726839151,
          0.013065084548783778,
          -0.8548909070178013,
          0.028272851917179695,
          0.7016993121330083,
          -0.30241865376121846,
          0.6828024766948181,
          -0.8565484558856487,
          0.8658997336475708,
          0.2529482985982034,
          -0.20961963851425783,
          -0.8263851478544206,
          0.2365521410060157,
          -0.4724448243009318,
          -0.6146876994819883,
          -0.9057003271109378,
          -0.3362578361176629,
          -0.55495655415877,
          0.11916414145937096,
          0.23011131675077098,
          0.02689089308893505,
          0.27289932430118957,
          -0.3785122048166091,
          0.8681843984707058,
          0.42518819299550137,
          -0.9052534325919815,
          -0.504149517937017,
          -0.06382530601602143,
          0.6000118006000228,
          -0.7609624679582697,
          0.3983675410048948,
          0.35036956833817573,
          0.009172820490942962,
          -0.8095419358866808,
          0.2870367877983693,
          0.24115465676893894,
          -0.918868321131371,
          -0.4506921897214621,
          0.8920456704932095,
          0.6983218422835478,
          0.45353700747001574,
          0.2903122347254472,
          -0.7962946813727894,
          -0.5655666509404247,
          0.3293880295312128,
          0.14610786867509434,
          -0.5020426914161545,
          -0.6264583726223204,
          0.7724090532125663,
          0.23929119680670177,
          0.7751317412287172,
          0.2696425646197629,
          -0.42388034602304653,
          -0.3086034092871271,
          -0.006548711715166968,
          0.3991321638659994,
          -0.7740232176725547,
          -0.6555027926142456,
          -0.6158120671223202,
          0.6290756530813647,
          0.6436638208410443,
          0.17647443213340924,
          0.949269464009231,
          0.08995609342290832,
          0.5818588890331042,
          0.48915146265526743,
          -0.4671475282447024,
          0.17119536297933832,
          0.28840792078782496,
          0.053343223439172416,
          0.35616529824736176,
          0.8171646034967988,
          0.2016229301259438,
          0.6412711998244952,
          0.17091681455073546,
          -0.5555598767517191,
          0.7510173388776246,
          -0.3832963984622155,
          -0.6761644835562216,
          -0.025809803418425974,
          -0.1044922651624573,
          -0.13787240791885003,
          -0.8733878278970661,
          0.0754986124573604,
          -0.8236162325005404,
          -0.32512830162701395,
          0.5459372612325618,
          -0.9518698913888994,
          0.3687140652218142,
          0.676416476015797,
          -0.160624777287965,
          -0.6849828022435682,
          0.4459940930254524,
          0.3046508874964491,
          -0.20438009507852925,
          -0.7234653365616527,
          -0.06353471251911519,
          0.18604297234486333,
          -0.48083194856862255,
          -0.7186477317903277,
          -0.7350711155513197,
          0.22655875987146626,
          0.597886548071121,
          -0.6425715240106373,
          -0.004478816175992491,
          0.5994947544861089,
          0.7520735221247615,
          -0.35229154909619587,
          0.6299301213609817,
          -0.3095895596149468,
          -0.40198687422914126,
          0.007849828341256554,
          -0.3952209314603837,
          -0.5403989696262308,
          0.30703500193634914,
          0.3291696825675484,
          -0.5496535993654007,
          -0.31574966398014565,
          0.5114067864367373,
          0.6994532072433961,
          0.2889633573186555,
          -0.4840334699566691,
          -0.24749524394743921,
          -0.48379302732979174,
          -0.7597244702886897,
          0.15359134562932608,
          0.4363413394615998,
          0.17907946055823576,
          0.7424492819649275,
          0.32367481619716093,
          0.4281545509401199,
          0.9880640847636493,
          -0.4773359029784583,
          0.5189140081759671,
          0.6335675040462291,
          0.6113752073498638,
          0.13970291294527853,
          -0.6500304310684597,
          0.34090286866439534,
          0.6648937115951624,
          -0.3633584268119075,
          -0.31220887158450356,
          -0.7842872544385876,
          0.79976982527522,
          -0.6683945446885939,
          -0.11982419096529634,
          -0.6935533487622855,
          0.18458794261194952,
          -0.7343374915725458,
          0.20754686332541455,
          -0.4582188306849051,
          0.37974987108122465,
          0.5121071840003606,
          0.6223966465896549,
          0.7446615262565155,
          0.05030693723480395,
          0.7072764669183189,
          0.3120535869729841,
          0.9900604997493494,
          -0.418530158769559,
          0.6242065390100292,
          -0.5652946375386202,
          0.25486016850884474,
          -0.264407184876914,
          0.6070276427356257,
          -0.45802692240862297,
          0.372299118019841,
          -0.5000659573573374,
          0.5307348672712271,
          -0.9483340021420996,
          0.27798715808994456,
          -0.14495746594941022,
          0.3421560357940024,
          0.8177010294367743,
          -0.7944921120990215,
          -0.7020654369931028,
          0.9419532140277486,
          0.15054736829472112,
          -0.3642667102539217,
          0.9486112937153988,
          -0.8890418201793573,
          0.9756510369255498,
          -0.597348986672904,
          0.7839107916202646,
          -0.4428726280358273,
          -0.8644100656392185,
          -0.1532779728215808,
          -0.9217699327974646,
          0.17091904432085192,
          0.3608676776257236,
          -0.9784120123445564,
          0.6648235495659289,
          0.31071474213913997,
          -0.6987828760516039,
          -0.9112865548602125,
          -0.5303338680014413,
          0.05697375366605904,
          0.27296869820750125,
          -0.5860802631082163,
          -1.0169932019847867,
          -0.9792068558763064,
          0.8288906943299549,
          -0.6484771438967061,
          0.6288645629342573,
          -0.43981991830992007,
          -0.6408764005991908,
          0.5414820174062414,
          -0.6241428236096016,
          -0.11173989272915767,
          0.1094810521716214,
          0.06820713687971791,
          0.9041674034805545,
          -0.9610992670266647,
          0.5463145400162926,
          -0.1437989864969859,
          -0.41078615803654517,
          -0.7936024793262243,
          0.2133663020974562,
          0.35512489909313083,
          -0.38908052392015097,
          0.21000972771667492,
          0.7875073566606796,
          -0.44074947448184604,
          0.6609832857375515,
          -0.3449405464147817,
          -0.7443106142515482,
          0.7462367491848692,
          0.8230565806493246,
          -0.3420772194270574,
          -0.9366361486318607,
          0.14643683380117065,
          -0.8629528026622537,
          -0.6338809899924659,
          -0.17578918510318978,
          -0.2499638618580319,
          -0.9814958808450324,
          0.41898984468992834,
          -0.19526247370794048,
          -0.6843345213910541,
          -0.9218668291342542,
          -0.2668362858252822,
          -0.4570244242673729,
          -0.5547658404363167,
          -0.1063399208668764,
          -0.2445389527711673,
          -0.3707139598210221,
          -0.06811707923215511,
          0.5569603735699605,
          -0.153464499070459,
          0.4490689401100107,
          0.14979003276069017,
          -0.29976524592562376,
          0.4078406680961688,
          0.4485402221483622,
          0.005847261520997647,
          0.5615530965080338,
          -0.23728416113443873,
          -0.4138273090230761,
          -0.8948609048085865,
          -0.6359872717727783,
          0.9163707273881353,
          -0.986989487350357,
          -0.2648311317761051,
          0.7556609700764071,
          -0.14088180998010089,
          -0.6342347528560435,
          -0.24132749230558348,
          -0.13614269963163794,
          -0.21056165312403108,
          -0.41866367872149013,
          0.5258314424829131,
          0.023993978470399302,
          0.6630184984989663,
          0.3896168445147773,
          -0.2711342968553806,
          -0.9748731072281904,
          0.32104549887302086,
          -0.9726154640156591,
          -0.2392232971808709,
          0.7622542538347707,
          0.5119627532020279,
          -0.24365297805932376,
          -0.9317530536520952,
          -0.7455849306618221,
          0.09474187190718546,
          -0.11326193344577384,
          0.8310364695810452,
          -0.7051384804718984,
          0.28439142619382446,
          -0.6025211177595825,
          0.31337119989639733,
          -0.043461382202942205,
          -0.916378773021973,
          -0.418685619998024,
          -0.7577535213301161,
          -0.9759115367339346,
          0.06953801675324467,
          -0.05478812469212757,
          -0.050677886606652844,
          0.4146312963473977,
          -0.502643063871116,
          0.936580342786736,
          0.408970034218307,
          -0.15572146761065536,
          -0.9842747499002868,
          -0.9496601258451653,
          -0.24748674763550102,
          -0.9429133522003462,
          -0.39026356319610733,
          0.9256315066103658,
          -0.647890925882305,
          -0.6418985635122311,
          -0.3809064014937287,
          -0.6768895470776639,
          0.6943792367151996,
          -0.565677785847515,
          0.43367998848953193,
          0.35531729039793597,
          -0.07942080625054979,
          0.5802147142559355,
          0.5583971261708442
        ],
        [
          -0.06890094831995652,
          -0.15965465104435594,
          -0.6719901065731135,
          0.5772205698819155,
          0.5094526122981193,
          0.6192268799830529,
          -0.573063320645038,
          0.4374249708888782,
          -0.9513031175460274,
          -0.37826252139543426,
          -0.978592325860566,
          0.3465680791563588,
          -0.06522897511627379,
          0.9017079254318183,
          0.894587080877024,
          0.13171486374927419,
          -0.12748158043576216,
          0.7538400603820966,
          -0.15921032893119208,
          0.5369243558921769,
          0.8706365338367835,
          0.091759621318817,
          0.3834785206900826,
          0.08359997046205203,
          -0.3494233102060873,
          0.9777274474736126,
          -0.5621138602263511,
          -0.25101551883448137,
          0.5318783854844842,
          0.526388489331354,
          -0.4083017587804125,
          0.1587157515350328,
          0.1565168610717631,
          0.023984316072892753,
          -0.5206551158246042,
          0.2716913489141497,
          0.39569692055956995,
          -0.5805241709401772,
          -0.02549609225487579,
          -0.18972934155988566,
          -0.8034797033215413,
          0.16909341902653038,
          0.09435254392263182,
          -0.21633605754935778,
          -0.7145553242639411,
          0.5110262113353176,
          0.9568179252091409,
          -0.7610497927542421,
          0.7828158596040363,
          -0.5278633868238048,
          -0.20707021919134205,
          -0.11068616800153402,
          0.20015085809483146,
          -0.6065044748798902,
          0.6673732983642493,
          -0.35076863676653813,
          0.31750444959381063,
          0.06536279981190951,
          -0.6229421936539445,
          0.8911934588554162,
          -0.07573659333893401,
          0.7952550366400577,
          0.9328096852502568,
          0.3188659497398598,
          -0.701160078902451,
          -0.39624738872342585,
          0.39559017950848013,
          -0.5343707373784335,
          -0.40514218382171574,
          0.6001889737689144,
          0.9299216923980347,
          0.8244570129666372,
          0.02081162668373813,
          -0.16571348800402363,
          0.063098314372853,
          -0.7531936484305946,
          -0.910647980128896,
          0.1779400294219487,
          0.5763600425585199,
          0.14805273982295775,
          -0.6820120733724594,
          0.9127076402505834,
          -0.833777001795343,
          -0.5412030562984791,
          -0.8489989669359423,
          0.9608227788192294,
          0.11830792441105542,
          0.8736804966336331,
          -0.24883294027501224,
          -0.9032515254185141,
          -0.6439504010222432,
          0.5109519665985358,
          -0.7679259927742504,
          -0.7222961354049361,
          -1.0193475365415352,
          0.9893621390100916,
          -0.6015840545994963,
          0.564471763278958,
          0.9321378114955954,
          -0.09539847291186206,
          0.45495230047243373,
          -0.5950608937464575,
          -0.24121455946128362,
          -0.7450678360279588,
          -0.5675734665839547,
          0.49270653721981705,
          0.7108152182752887,
          0.00184461158554317,
          0.8403587181151089,
          0.7145628255755612,
          -0.24731890160175185,
          -0.7816596917550807,
          -0.5384679483709944,
          0.8506961348849686,
          -0.43312582420239343,
          0.9544125481285697,
          -0.8310333126953591,
          0.2509015347732011,
          0.9614156025446863,
          -0.8521708209915076,
          0.23508447790174555,
          -0.7661065117176806,
          -0.6922516319282596,
          0.5667434523551375,
          0.8811907464645651,
          -0.3400344336144989,
          0.030881933707034962,
          -0.30675380686170717,
          0.1412048447255908,
          -0.47138264102366007,
          -0.5269502178202963,
          -0.8678240220805672,
          0.3059763708937226,
          -0.8421945110606741,
          -0.27822381946753005,
          -0.2627297332369641,
          -0.06752135138534902,
          -0.7702636618575838,
          0.7792407364609755,
          -0.8595976986147558,
          0.5728166653604716,
          -0.5404610908845764,
          -0.6059702020727689,
          -0.3947908228337753,
          0.02632426868614468,
          0.09040958222983564,
          -0.929490088825487,
          0.41965551726434513,
          0.4558665276757405,
          -0.3671799996060368,
          -0.6546443295069285,
          0.7029679661283068,
          0.7531987606547534,
          -0.13444428381497736,
          0.8576171203532099,
          0.4879534705949473,
          -0.5898767184560896,
          0.7326853720900617,
          0.41195579776198854,
          -0.22901893135408527,
          -0.628294528706963,
          0.5828614878622643,
          0.7336719120687356,
          -0.4738713090128273,
          -0.6376623598539477,
          -0.5364481539426338,
          0.7921001773361591,
          -0.5795660206111442,
          -0.26763735986183024,
          -0.5229601064880818,
          0.35375685800131107,
          0.28372531020828706,
          0.5356869227529839,
          -0.9861754467517674,
          0.09541860010894533,
          0.2195788982569765,
          -0.47351240135097483,
          -0.8959891532360628,
          -0.40932187655743196,
          -0.061315162546786844,
          0.7391694449226907,
          0.47697974533489806,
          -0.01771151508664855,
          -0.10871542099279835,
          0.6267592264366693,
          -0.1652655321755554,
          -0.5758473332335043,
          -1.1037251347313246,
          0.1072696745620485,
          -0.3426772685055265,
          0.15003054705771549,
          0.7832539259148654,
          -0.37714272856582,
          -0.44835567797740383,
          -0.2533652082637521,
          -0.46400037632583846,
          0.6893801123062278,
          -0.5371762145233552,
          -0.3694463486686157,
          -0.5920135083691882,
          -0.9434224630794956,
          -0.4699415109429723,
          0.21575009369264425,
          -0.6942326708087893,
          0.4194226651378246,
          0.34875314411361874,
          1.0663070511366135,
          0.020514886579382535,
          0.7122345863179221,
          -0.9966105528047109,
          -1.0167832367375758,
          -0.1869023226346547,
          0.3780071444382162,
          -0.5531266257683303,
          0.6714466514201396,
          -0.34610388941835285,
          0.25041240166417755,
          0.7948415526813286,
          -0.7349587601933243,
          0.7872353646886908,
          -0.028610236645776277,
          -0.2814543051060021,
          -0.28070843524667577,
          0.5360195083186876,
          -0.6894255286993531,
          -0.025848239726224076,
          -0.2365626741316822,
          0.737034502782909,
          -0.043757969946316866,
          -0.7585485625651605,
          -0.08401054332247697,
          -0.023741553152602637,
          0.5650776578844273,
          0.9902297541961972,
          0.44807221950845244,
          0.1854136670413187,
          0.28179638152397085,
          -1.1839570315150338,
          -0.41521438245093717,
          0.7021566550290799,
          -0.18243985030348647,
          -0.10356134209042059,
          0.49677453691325163,
          -0.005777484020633818,
          0.10030699167019294,
          -0.9395271914387823,
          0.8531001885927618,
          0.6260899669127381,
          0.8853065582150169,
          0.0602097409123217,
          -0.03317688406740382,
          0.7784421739435667,
          0.03166010643369166,
          -0.8348089581912879,
          -0.8151141344439274,
          -0.31133667131982046,
          -0.6035670068149761,
          -0.36750048917830513,
          -0.46103684659665195,
          0.7614166222321709,
          -0.3599931417960814,
          -0.7717858624492895,
          -0.25436751296627885,
          -0.5898552325519909,
          -0.27131088708277645,
          -0.25645343793243963,
          -0.15373605902995566,
          0.7471046207850716,
          -0.8451210651782708,
          -0.460275168341497,
          0.1488353456406727,
          -0.14169986638306117,
          0.2094008845856997,
          0.10978334479995673,
          -0.7937860754247267,
          0.6033185831490493,
          -0.5992606596986126,
          0.0024137244454960766,
          0.16580775434527872,
          0.1246184354059392,
          0.6414155446242038,
          0.7868866262216025,
          0.6239199577751786,
          0.16518395976348854,
          0.27263616781312017,
          0.9066837107268756,
          0.7214017005148853,
          -0.2187117248118995,
          -0.0622006552622353,
          -0.026530067476919394,
          0.6087484833854466,
          0.10155476432847177,
          0.33772853667336494,
          -0.7873479370143159,
          0.3077312837732147,
          0.5938400485097803,
          -0.21087533428958954,
          -0.03857294035066299,
          -0.3907109265819313,
          -0.43181883243906427,
          0.5265525201704763,
          0.16666926317077238,
          0.572028930908484,
          -0.39274723808790113,
          -0.9572163548487839,
          -0.8381601062782181,
          -0.6395518576135227,
          0.7878100571256725,
          -0.5519187565034058,
          -0.7623053156971045,
          -0.7747923770003875,
          0.35734836665068226,
          0.1375568219996799,
          0.5942374582539177,
          0.7231423488099651,
          -0.5794412470086502,
          0.06548646962348828,
          -0.8837214643462716,
          0.24357838683123084,
          0.47961303536005906,
          -0.7497796091242107,
          -0.5798705900506743,
          0.19300335410294958,
          0.2245390508088427,
          0.3311826505530775,
          -0.5672163614848974,
          0.15591417561901072,
          -0.5887869145647115,
          0.37617001309043996,
          0.6049050740113184,
          -0.4347706479066319,
          -0.7782708953466518,
          -0.7914309121356147,
          0.4189955356490764,
          0.56859356289816,
          -0.9193495608150997,
          -0.07589609412495912,
          -0.5812601358531566,
          -0.02518409575474756,
          -0.679361253667301,
          -0.35852096909762105,
          -0.625579038509154,
          -0.030532653884669178,
          0.5058087453452653,
          -0.8719720058739553,
          0.8491662823620335,
          -0.25518318994037026,
          0.7625384521578187,
          0.4162896137879141,
          0.7904932771666462,
          -0.39684174838812025,
          -0.3502644491544139,
          -0.7026901548288093,
          -0.14136704213150536,
          0.5917700845818452,
          0.45769903219239344,
          -0.28423230537566246,
          -1.0232768212834737,
          0.87394026361204,
          0.2487426950238398,
          0.6675900410076416,
          0.4007644960535396,
          -0.6603559692554115,
          -0.946727344893194,
          -0.35562575651886696,
          0.11802693195718028,
          0.08807166492936558,
          -0.7751960525345507,
          0.24971704505113818,
          0.7978535673639869,
          -0.5880838236489937,
          0.7794536646493175,
          -0.22391921830428263,
          -0.652757725028215,
          0.47832398563498174,
          -0.24937778528948845,
          0.7402901193312914,
          0.12738353084007725,
          0.052045563916166424,
          -0.9254331995156184,
          -0.42066507043301127,
          0.31184358189133043,
          0.29600687693593036,
          0.13642326670036947,
          -0.33571281853531515,
          -0.3644965490280553,
          0.10481600378657571,
          1.0172916863820278,
          -0.5187475893047545,
          -0.26503971482956945,
          -0.6317525934493651,
          -0.3002061007462119,
          0.33208102064970246,
          -0.7404072725590729,
          0.8475373757816445,
          0.07662636463938766,
          0.7895970467245464,
          0.013096063902754768,
          -0.7611665014861405,
          0.7221675513708156,
          -0.18122554366842464,
          -0.6447819330978407,
          -0.4494360168313311,
          -0.09787780659056718,
          -0.8793728683934663,
          0.6125160081348874,
          -0.782301964726459,
          -0.6031391072991239,
          -0.27715586653489455,
          -0.9475532805178953,
          0.5034141466836629,
          -0.19958341035588667,
          -0.11017553979509817,
          -0.41202085427042934,
          -0.17684688467846976,
          -0.5046226298355058,
          0.34209015020314126,
          -0.13178174764706213,
          -0.9134452482824647,
          -0.5514040878225062,
          0.9317986391277504,
          -0.9964850412111228,
          -0.3184076249306038,
          -0.9019533733311413,
          0.657902581594418,
          0.92325670617183,
          0.7653561450695038,
          -0.5918151920111318,
          1.1496209650716553,
          0.6933777994984248,
          0.23610900408068447,
          0.11995862177300333,
          0.2522983773729162,
          0.11248851536613139,
          0.6675048616195198,
          0.3676722550326033,
          -0.1604596433210098,
          -0.7112645828511958,
          0.6441816615109834,
          -0.6287923264766444,
          -0.03775948843477801,
          0.3852534600500089,
          -0.4118697658427812,
          -0.22448530070770337,
          -0.5927022818909324,
          0.8101808333314752,
          -0.6544626685808708,
          0.49445625075488053,
          -0.18141198738617748,
          -0.40269598744774315,
          -0.6859104516659533,
          0.3660435179292927,
          0.557481604304477,
          -0.2932730129703021,
          -0.08500894389234404,
          0.4476046088933866,
          0.05500665991413136,
          1.1258091895811655,
          -0.7030212606880943,
          0.35249108694156706,
          -0.7014194867373302,
          -0.21193350401563293,
          -0.5899518005453539,
          -1.013251470872882,
          0.7431278193881073,
          -0.06358832292548826,
          0.5985008330825545,
          -0.9802936046864906,
          -0.4557846938153461,
          -0.9371810216258903,
          0.958698229887304,
          -0.46526660826503463,
          0.5720730541643598,
          0.9136797350786054,
          0.9823097702091548,
          0.9788456996826985,
          -0.744405236768984,
          0.992756399314787,
          0.6446781280731093,
          -0.9019558121405442,
          -0.060299471001779965,
          -0.05221386416367597,
          -0.5765492665246253,
          -0.41050046303390314,
          0.5338675337350918,
          1.0423420024168435,
          0.3043947430295853,
          -0.5983758321331147,
          -1.0344728985941702,
          0.09731384807269523,
          -0.7487265838424247,
          0.20650755616032193,
          -0.456722087456508,
          0.12013104480054776,
          0.47761401926718056,
          0.5795952490086821,
          -0.8611792832162772,
          -1.0149246787123478,
          -0.6989699045795098,
          -0.8423263004780764,
          0.201733272206913,
          -0.6276933892136519,
          -0.941505042701045,
          0.886035455791237,
          -0.8067283794711351,
          -0.4610925491831237,
          0.9651981962825853,
          0.5581408664584355,
          -0.17608556865684993,
          0.5817781723737204,
          0.8199036621721647,
          0.5137136407038811,
          0.35414817749200783,
          -0.532457910882847,
          0.045909819205178136,
          0.23097813813350962,
          -0.4518434114545045,
          -0.4571424830423966,
          -0.10636122197274597,
          0.3283773756310605,
          -0.5487671975399881,
          -0.9988213281511125,
          -0.471300717412216,
          -0.5671048442274573,
          -0.20213532670409126,
          -0.8734996142753889,
          0.5307438428257946,
          0.3955767585684644,
          0.7654098365982697,
          0.06627766584600125,
          -0.32921475447548787,
          -0.05015085360310059,
          -0.5506362716613835,
          -0.3247043891661572,
          0.7376145586559706,
          -0.898023481393857,
          -0.20052024792367854,
          -0.1318853805027862,
          0.08291006682889704,
          1.0154543999796528,
          0.5755613319196136,
          0.775483633812267,
          0.5944589882618079,
          -1.0552838896528614,
          0.2524130095772397,
          -0.813008979008001,
          -0.39667692254837456,
          0.12937103557996166,
          0.5839783006723491,
          -0.5209862827034478,
          0.04301259141151403,
          0.3775614039889565,
          0.34844102055619774,
          -0.27347734130546963,
          0.9027324946655828,
          0.8391248483033006,
          0.3881362812184551,
          0.7570502289134152,
          -0.3276540639662152,
          0.538616004776205,
          0.4360807603093919,
          -0.5895828301312518,
          -0.7699552493444228,
          0.9093188919288866,
          -0.7162809337389154,
          0.6132224652282402,
          0.3632778357343525,
          0.8038036077374693,
          0.6409422832945252,
          -0.9027194699114818,
          0.48374275506984155,
          0.02101939323626904,
          -0.7162924986109048,
          0.550749610534965,
          -0.3786163906781932,
          0.7879122371946343,
          -1.0926606183255831,
          0.8313480276212669,
          -0.7213401969669885,
          0.34631293453134293,
          -0.1245391966715694,
          -0.12341703578337751,
          0.17722685570595556,
          -0.6375099946925611,
          -0.27962463849843755,
          0.018256915145989015,
          0.624482579859833,
          0.39929829103130815,
          0.9617656525853766,
          0.6311942580365923,
          0.2709444849733833,
          0.34193845989711535,
          0.7184361338810593,
          -0.6794789891924881,
          0.08194982817268068,
          0.1823212492005643,
          0.55936351234559,
          0.13946241087773417,
          0.6711377260083822,
          0.25745604184615334,
          -0.4071385383105776,
          0.26834148421127113,
          0.8545205615835928,
          -0.07072805839126653,
          0.5681991227728129,
          -0.6324367500311907,
          0.039783151984993145,
          0.40605620264088577,
          -0.4130247999649855,
          -0.7894085933506316,
          -0.2544699264595402,
          -0.6799593752228766,
          0.976614880839116,
          0.9340718725727963,
          -0.8521812717099013,
          0.8241020892233779,
          0.430807413301038,
          -0.13536161241051747,
          0.9189162664976389,
          0.9527009453200215,
          0.7782473487158064,
          -0.11938450848851553,
          0.04669690590509453,
          0.1824657890650036,
          -0.450257142021191,
          0.16753064354937156,
          -0.25767994999080734,
          0.15794540425974699,
          0.2501466884729396,
          0.670638347438179,
          0.9593265939319472,
          0.1330142643432203,
          0.01216393276730818,
          0.6096772088682447,
          -0.677152062299779,
          0.23222005638615328,
          -0.17358025684594258,
          -0.18526645268446892,
          -0.26866373337883614,
          0.10442920797150117,
          -0.12577384879884781,
          0.91375307038424,
          -0.6058642583097834,
          0.021524900144531973,
          -0.33515810430071236,
          -0.997599562427891,
          -0.8729187798918123,
          0.1455625320499201,
          0.3736791579311486,
          0.7387614972998046,
          -0.7487118918651076,
          0.6071277879614054,
          0.8918416899153979,
          0.5090472093293806,
          0.4102712033836911,
          -0.8053811749498988,
          0.2885161335693206,
          -0.232273276256021,
          -0.5196748845210674,
          -0.664805874941441,
          0.5648784158163965,
          -0.02290529463275168,
          -0.7360419636394988,
          0.10386983679024057,
          0.3159012691573549,
          0.25431439858097477,
          -0.8568186144443419,
          0.882897089139863,
          0.3193897464177227,
          0.0064485173075758745,
          0.7065138257204575,
          0.26903996231059574,
          -0.026713123495491597,
          0.49775514329245496,
          0.8114059315943951,
          -0.570546524067391,
          -0.41918172483395466,
          -0.3926671598877737,
          0.9180164214581776,
          -0.4816734380248725,
          0.8366152999153507,
          -0.6336679040223917,
          -0.46350665610771546,
          0.8524609387849716,
          0.11853380109775169,
          0.2935496293517722,
          -0.8732183687090929,
          0.7453521341617263,
          0.8948656575275711,
          0.0937108782667049,
          0.9909776544998328,
          -0.11346542374779149,
          0.7486225219796477,
          -0.4767453892183,
          -0.931606229577539,
          -0.7130787441728754,
          0.6382539366019546,
          0.7110064927088745,
          0.5747251863384444,
          -0.7044520809898906,
          0.9757848079248972,
          -0.7665942273745685,
          -0.11101423129548404,
          -0.5185453132360749,
          -0.1439615540107904,
          0.07332953986863917,
          -0.5270771176651784,
          0.7737007578546717,
          0.8517975175593151,
          -0.4270849929242758,
          -0.8163665584561034,
          -0.3158704482919957,
          -0.5999100529802713,
          0.22464426635521922,
          -0.3984538332904949,
          0.18231188221737177,
          0.3211849536854024,
          -0.29409598026092476,
          0.7462835436216171,
          0.12119791602373822,
          0.4816871339984768,
          0.9337573141504315,
          0.3159713980665997,
          -0.7255234406790037,
          -0.9670818850812232,
          -0.6200275290095869,
          0.5192747283289906,
          -0.7321969676745029,
          -0.35942418612019766,
          -0.8887492437044964,
          -0.7128905104355776,
          -0.15905874840032697,
          0.061117746437036206,
          0.8522682045716251,
          -0.7267379913299326,
          0.9772260767452675,
          0.5298387606987046,
          -0.8841913500828495,
          -0.5343089629241721,
          0.9760222422400386,
          -0.36453862499608114,
          -0.397408107203869,
          -0.9288366734989684,
          -0.6359010489290969,
          -0.25889847052094267,
          -0.3916873122511299,
          -0.8660532048488642,
          0.7725153257041616,
          -0.35426801046354883,
          -0.20313386243467213,
          -0.6174090214806881,
          -0.26851360198650387,
          0.5895264990442813,
          -0.9455886717341003,
          0.626628700140682,
          -0.8425603722125753,
          -0.39120351367505846,
          0.377163389273103,
          -0.10516892454226756,
          0.32273970125551976,
          -0.09153421264390227,
          -0.6678767035544919,
          -0.15028335652023572,
          -0.06889006344635687,
          -0.26152208270088173,
          0.32583843877843155,
          -0.4478164987497812,
          -0.23499540020517085,
          -0.3760999971551948,
          -0.017908085270482058,
          -0.5717304313016366,
          0.2945809179041989,
          -0.7275105753338816,
          0.6435525939703953,
          -0.7327177504422552,
          0.7970653661163941,
          -0.016071196920405005,
          0.03368704594481791,
          -0.14778246581634405,
          -0.8658764156255234,
          0.3501494488547516,
          -0.7623791791110666,
          -0.40547826671626447,
          0.9902127995127712
        ],
        [
          0.5986739381225883,
          -0.9641465632773967,
          0.14806708206095065,
          -0.8763674258134562,
          0.602135494534731,
          -0.030314744569470253,
          0.69278440776207,
          0.9637273251163019,
          -0.9570099949237107,
          0.3246920922106993,
          -0.04791621321590789,
          -0.5729797119472129,
          0.7217155872656766,
          0.7844517367236055,
          -0.2715314365743628,
          0.9039382439549489,
          -0.9529841357315386,
          -0.6308672436639566,
          0.26583619829589844,
          -0.9646832465136419,
          0.4931821013361889,
          -1.0171970278202962,
          0.11169193400597169,
          -0.9702557205038471,
          0.7409330183607636,
          0.2589644158638005,
          0.4785110380498172,
          -0.721553266287442,
          0.8190508990559566,
          -0.24376877048498713,
          -0.07171797864722418,
          0.8265287874615446,
          0.23488867767535648,
          0.42022472734210536,
          -0.7801641896559186,
          0.2289209856222163,
          0.3755813105874628,
          0.9801528008391522,
          0.06792151568001496,
          -0.13712773494042763,
          0.36796386227114886,
          -0.3603594097842077,
          -0.5300047186809502,
          -0.879127691694332,
          -0.6123963648043854,
          -0.2840178434932037,
          -0.6999505573342902,
          -0.5198985507547045,
          0.9304397017768377,
          0.6277311852250153,
          0.7463273964430082,
          -0.43475027744266015,
          -0.4822094972149752,
          0.5973574560273778,
          0.863895508876174,
          0.616288166495051,
          0.6667811769862477,
          -0.242937688377578,
          -0.19861106278477125,
          -0.14305581546488177,
          0.9681956626532311,
          0.5457702460918554,
          0.15169708185125597,
          -0.944112463306821,
          -0.8942039964915849,
          -0.5581090615557972,
          0.8208741262044155,
          -0.0637792695119997,
          -0.6418437030445596,
          -0.24026643345442789,
          -0.8881677595960065,
          0.7110627079112395,
          -0.2773749599291363,
          0.621508345901633,
          0.7742158450265112,
          -0.2511285739862881,
          -0.13123151674632333,
          -0.048008651427374094,
          -0.8436262922461151,
          -0.5759795210387143,
          -0.2639024808478249,
          -0.45084360447967314,
          0.0613345189177803,
          -0.1295014196186477,
          0.5187597673629574,
          -0.8402891815786862,
          0.7041044349013559,
          0.20923956166832403,
          0.9221343313114905,
          0.6266292901326391,
          0.8571321475740015,
          0.05948084045276936,
          0.1279689058263495,
          0.4863417589804276,
          -0.07935093034367185,
          0.7888136561604862,
          -0.385472082019431,
          -0.6218258901912265,
          0.2925787020304097,
          -0.20960521702113963,
          0.8735574631503721,
          -0.3956297451956126,
          0.3372968551805233,
          -0.5225591535266984,
          0.5839229910035071,
          -0.8112376635887673,
          -0.13300427537835666,
          -0.1303203766256956,
          -0.9533960610806698,
          -0.19122533026549118,
          -0.11891124741026227,
          0.8900401356462799,
          0.8180779010211778,
          -0.1498745777245265,
          -0.04777264826052052,
          -0.6369230195005873,
          0.8693479829134279,
          0.3401592771613684,
          0.9233941314649958,
          -0.2039698772022936,
          -0.23959262082042476,
          -0.20323511494658708,
          0.023638407464029936,
          -0.44860090563344784,
          -0.21432353555455821,
          -0.05367625508217036,
          -0.6628666568455012,
          0.739037563168531,
          0.03194365287728541,
          0.10726442629188444,
          0.6597593508375775,
          -0.4067205170588057,
          0.17265661578687755,
          -0.39290947571520285,
          0.48022901531004364,
          -0.6171095692240247,
          0.717685572717769,
          -0.7045267485111077,
          0.5255773590907054,
          0.7399192380239712,
          -0.9128694321674846,
          0.6600832957165403,
          -0.5237403179745508,
          0.3227043764403992,
          0.32211237820871164,
          0.751194924420775,
          -0.6844041323797105,
          -0.20118568553005556,
          -0.22351516133470692,
          0.10917416372235371,
          -0.9119135773599071,
          0.7734609000750975,
          0.6579254188082242,
          1.1736562158261032,
          0.2742996056308284,
          0.5097257890209159,
          -0.13074631964505215,
          -0.054213837270513814,
          0.05997818322017407,
          0.12717384752162686,
          -0.6216542012641167,
          0.9305845922795183,
          0.682117327724893,
          -0.2087066211984719,
          -0.8220074855735733,
          -0.1693254727380175,
          -0.7786437443773884,
          -0.001785745920075854,
          0.28268117433911133,
          -0.8602197672602498,
          -0.5154665598533952,
          -0.9111799851561502,
          0.6728651257987819,
          -0.21562082218266543,
          -0.8829964885946531,
          -0.07673641773139979,
          -0.1696448538938284,
          -0.9952629535992942,
          0.0941696763650202,
          -0.6624090261726807,
          -0.4728725653927425,
          -0.14412971893648568,
          0.8472157066928215,
          -0.1488467042233327,
          -0.06702400020980176,
          0.653521922712952,
          -0.13177427402055983,
          -0.20784749924529036,
          0.23534917050621093,
          0.7410845891715655,
          -0.7656148567744461,
          0.8640339864465387,
          -0.32294891980955587,
          0.2817701322998777,
          0.7474851919327823,
          -0.5015618152769457,
          0.09125910309140473,
          0.03618793260520414,
          -0.04515350869130019,
          -0.4412148658898807,
          0.4708999413715036,
          0.4105213426946239,
          0.7171332779118402,
          -0.21727751708669435,
          0.7879598362561062,
          0.7636707989515898,
          0.40436735411190283,
          0.3413749034844482,
          -0.1632126921492244,
          -0.8210958995874168,
          0.041647325939778025,
          -0.7617633357866727,
          -0.2074038614838024,
          0.7477726883067021,
          1.0008388598027846,
          -0.35624270662179264,
          -0.6425784011760496,
          -0.32592390910795394,
          -0.3563764998188093,
          -0.5947581965693914,
          0.6105133005468171,
          -0.26612740820915687,
          0.808348317859159,
          1.0066075773159753,
          -0.14238454468254114,
          -0.12138587430918779,
          -0.9591352711023218,
          0.4316534419092819,
          0.8468953055423198,
          -0.6046811549509776,
          -0.960389639150764,
          -0.46117418736655763,
          0.5034126632465626,
          0.6328852971797326,
          -0.6766780644062794,
          -0.06723715238926524,
          0.21267400570594414,
          0.247613416110384,
          0.5283020891459835,
          -0.4177311515279637,
          0.3118025100215724,
          -0.48058630928117785,
          -0.5656416032454976,
          -0.04802997633205665,
          -0.8139766364613025,
          0.43132474079373406,
          -0.7597693630824253,
          0.8307148069485514,
          0.5114250191172738,
          0.7108056319472437,
          -0.5250277940120363,
          0.8843139852298358,
          -0.1324992831623124,
          0.01134014210756673,
          -0.8523330719942299,
          0.385982307557021,
          0.22819477199044735,
          -0.9017359905360758,
          0.9809608742964006,
          -0.19225329363411742,
          -0.7232342702081033,
          -0.10894371754697457,
          0.6681039237057497,
          -0.028161090640042817,
          0.9708322279133944,
          0.040654237444639696,
          -0.5814636650517298,
          0.46266840207350746,
          -0.1272679490929055,
          -0.23007454085508472,
          -0.37673004264661053,
          0.9244001582620285,
          0.5654106981449089,
          0.11514111226571046,
          0.06356772845040366,
          -0.5493052998883012,
          0.7044243765107157,
          0.7010298619124056,
          -0.22470312058150343,
          -0.9308977692766057,
          0.6865478899076507,
          -0.30538617780150323,
          0.2968974495640535,
          0.132497651606041,
          0.30737532831373837,
          -0.8168536105399556,
          -0.3853086517063926,
          0.27340491502912184,
          0.5220557499537541,
          -0.4562882724907501,
          -0.5644784612211445,
          0.8848505502991879,
          0.07318395579025082,
          -0.6179000190219582,
          -0.005943467895966207,
          0.482528947824518,
          0.5435700136236623,
          -0.4744640795363258,
          -0.35449200177065815,
          0.661299486432974,
          0.23509764021181742,
          -0.729502008890597,
          0.8090937879518233,
          -0.4733919674290494,
          -0.006917867027647152,
          -0.8570790191566061,
          -0.5277165970359842,
          0.22948566316961383,
          0.10599259292676111,
          0.9645306864649683,
          0.49234575953419357,
          -0.8373409950774695,
          0.462440268042982,
          -0.6763342180821017,
          0.622410438097179,
          -0.24387265603702385,
          0.14193895125729608,
          1.144172496732445,
          0.20831649485260656,
          0.6773519481921136,
          0.9863730403439053,
          0.25602854578530854,
          0.4915623425887905,
          0.2904793490442141,
          -0.7965883780515357,
          1.1787353803373608,
          -0.08567971243638037,
          1.2119857721430436,
          -0.03949775719525146,
          0.961973102899224,
          0.8957940495202986,
          0.747636137323078,
          0.8819768875433798,
          -0.4231017501294976,
          0.4940339599489595,
          -0.6099023547027499,
          0.6559415473921604,
          -0.7792167961230665,
          0.8770895599860307,
          0.3986452510593952,
          -0.11729580201028598,
          -0.39558521978093275,
          0.1311007026200431,
          1.0003058151736355,
          1.2338505119609549,
          0.3680626951602353,
          0.4985862023874422,
          0.5655091792835428,
          0.20104213188176367,
          0.809711691669814,
          -0.45983554663084686,
          0.44299811335098216,
          -0.13423728188642725,
          0.29462888220998606,
          0.10567537484194038,
          -0.32011294250780387,
          0.8887327958213186,
          0.90204527538691,
          -0.1770422803456202,
          -0.5029754296185749,
          -0.10705892178206036,
          -0.6637081064604694,
          -0.8358726922104908,
          0.6065679737350744,
          0.10446460837893223,
          0.9655088758224708,
          0.3742966289941476,
          0.14090151195747058,
          0.7744951998374517,
          1.0277721270316649,
          -0.013022231312461014,
          -0.45767742229187697,
          0.4059524460729207,
          -0.5978553336096536,
          0.6200601661813717,
          0.067176078740713,
          -0.2505084991147564,
          0.17977618892303643,
          0.8534876764787075,
          0.8823554570429318,
          0.45228686800838497,
          -0.17713487964208946,
          0.6648690612753794,
          -0.6864905630068554,
          0.7778951262972076,
          0.5582111998533408,
          -0.3070177984484697,
          -0.28308334927335743,
          1.0500874343545221,
          -0.08323723956958608,
          0.11885613101248645,
          -0.19969907934521958,
          0.27270085579948367,
          -0.4914418389905437,
          0.4469753157236305,
          -0.8857975092823778,
          0.4618436980808022,
          0.3888741730965485,
          0.41923775285090137,
          0.23445854099140395,
          0.3997098184434895,
          0.2685090673264176,
          -0.2028528387654899,
          0.4251364325828242,
          -0.4552170569902528,
          0.22303873612430056,
          -1.1091868532940068,
          -0.953095501355817,
          -0.012764636835489274,
          -0.1311062277088016,
          0.1788033238098828,
          -0.07218817747095885,
          0.11372330259289783,
          0.22386969701428647,
          -0.5329979875540755,
          0.2548014657677181,
          -0.11091128266592327,
          -0.017916880023776345,
          -0.5962136400310392,
          -0.7628083866855404,
          0.9626945949153756,
          0.3638146606965864,
          -0.8115653267945593,
          -0.0915387246933963,
          -0.15705129978626514,
          -0.6354110263393814,
          0.06783902376011826,
          -1.2724655866429084,
          0.016840311604396516,
          -1.3227430163961438,
          -0.7787638515254628,
          -0.5189360896545361,
          -0.8999888106308876,
          -0.5878860403168156,
          -1.5976386435017262,
          -1.0428933164410161,
          -0.9680294103109386,
          0.15148074203702558,
          -0.0972654950074349,
          -1.1121729554504176,
          -0.5701920635189245,
          -0.4037273187098862,
          0.5333192555336598,
          -0.057432421578626915,
          -0.8367506517147701,
          0.45621548332931794,
          0.23728033668217433,
          0.5068298105420783,
          0.13661830270061737,
          0.18403189630191985,
          0.5917982581992023,
          -0.7675153598668136,
          0.02349204131008419,
          0.04279324357679643,
          -0.9818729052251923,
          0.5867197324034819,
          -0.17454385027557506,
          -0.6897413965392946,
          -1.3789618329108015,
          -0.2143604554020419,
          -0.06198815490454669,
          -0.6404917435645181,
          -0.7817843382075048,
          -0.13013749110560266,
          -1.0702874335736143,
          -0.44013226193701516,
          0.336174849528753,
          -0.22434332004931146,
          0.3564317286184214,
          0.1844534338982405,
          -0.6750221716000607,
          -0.6787763578561886,
          -0.18595529028470117,
          0.38910277646245006,
          0.8493720127937535,
          -0.48196376981713535,
          0.7884133355508531,
          -0.6387236201437378,
          -0.5699949284354902,
          -0.8635313433918475,
          0.6099244481683553,
          0.038787710276179645,
          0.38643980063601213,
          -0.8450334455197691,
          -0.7636827178672567,
          0.07114727205159385,
          -0.11497550290963733,
          -0.5679249052995711,
          -1.0447826562337632,
          -0.7642646355193418,
          -0.5001641371734542,
          -0.16960713652700757,
          0.5045223035716551,
          0.4162804580515001,
          -1.331688626391878,
          -0.7522824416034255,
          -0.3187026575788862,
          -0.2904694381494039,
          -0.4721099511997851,
          -0.1777593026443202,
          -0.49557706882762287,
          0.9276180031756787,
          0.1612734445521714,
          0.9394344689579283,
          -0.037566399395688066,
          -0.5099015955020385,
          0.993887836801504,
          0.43807875515872885,
          -0.851292213746133,
          -0.5286045293995808,
          -0.6730309065778725,
          0.10146710978621074,
          0.04479480203299358,
          0.39427674157482745,
          -0.8972183535317971,
          -0.7824025344346746,
          -0.6316577865112613,
          -0.23948301040790143,
          -0.7993122481167675,
          -1.1188972123866625,
          -0.17495631291503638,
          -0.3525927129769424,
          -0.09497142478372539,
          -0.9888932734241429,
          -0.7284157428800143,
          -0.16035529498964923,
          -0.7040558743385504,
          -0.27320811148861135,
          -0.5752099301338042,
          -0.6596041113152283,
          -0.9244477417399375,
          -0.35742547889750953,
          0.9025026996790078,
          0.5288432562144845,
          0.8543009436023685,
          -0.24029748157271547,
          -0.3184174914824568,
          -0.588821590257683,
          -1.0167086051894807,
          0.02865291736732668,
          -0.5220284826750818,
          0.43309606240433185,
          -0.5288545309189866,
          -1.2005950718382148,
          0.3418698532831014,
          -0.44331372463619356,
          0.026610530321933116,
          0.16045797511733653,
          0.2554725197582344,
          0.7535029995149113,
          -0.7443717489889122,
          -0.8452915922457789,
          0.3596518619478268,
          -0.13433453367824735,
          0.6602666790246419,
          -0.3189979727420327,
          -0.6716411845204795,
          0.7869760483388974,
          0.7191328142669633,
          0.746752888719343,
          -0.6006073458197818,
          0.1090286649499772,
          -0.9689932492776312,
          0.11498212882490222,
          -0.3877825773082868,
          -0.08256173246003815,
          -0.6277582065747568,
          -0.003345927154122025,
          0.16144530449215166,
          -1.0993130272148703,
          -0.5102051176571412,
          0.4003052872468947,
          -1.14392777890296,
          -0.2921240657066916,
          -0.8491564773988901,
          -0.15187089682958774,
          -0.48111354752775537,
          0.5224606169910355,
          -0.8118551464496725,
          0.5802318201482417,
          -1.1687820289960902,
          -1.0108554093425215,
          -0.5482918827198034,
          0.3234317543036417,
          -0.8748941544065181,
          -0.6499539573297751,
          -0.062189986717011696,
          -0.75075665184164,
          0.9585265169252919,
          -0.195763226924214,
          0.7272539747323568,
          -0.002881820988935413,
          0.9074063481079494,
          0.8640606000296434,
          0.7842886547997793,
          -0.7454378701525816,
          0.11260440080284692,
          -0.19605865384888632,
          0.10345104666255861,
          -0.9582654848923663,
          0.2700499850953188,
          -0.0013159273591994373,
          0.47449027227335316,
          -0.15295563107530633,
          -0.043325597598836925,
          -0.9395417573637141,
          0.19809171535701517,
          -0.76358037622615,
          0.5590890733908771,
          -0.8953674755118689,
          0.48174629718380685,
          -1.1016690710659152,
          -0.7780353902627493,
          0.16604410819160992,
          -0.8045949122845515,
          0.2610952286478667,
          0.18668583894384572,
          -0.06765144945754731,
          0.6849301374526671,
          -0.8469005344507572,
          -0.347573856947836,
          -0.928544365844264,
          -0.43911774673194875,
          0.4921540158149056,
          0.21410908761401148,
          -0.6457390216150326,
          0.18503283754878327,
          -0.03521333445069879,
          0.5429490199653254,
          -0.03493901003957874,
          0.9359246402367509,
          0.47458904649117906,
          0.06545277006825873,
          -0.5364394552892571,
          0.41778333006708046,
          0.5825911086589419,
          0.4894994510582051,
          0.6670666030180212,
          -1.1051989761747447,
          0.14076888269069582,
          -0.46986775206525944,
          0.8303856839300052,
          -0.13739592040086307,
          0.9286584513917617,
          -0.660364222149322,
          0.07147820735079158,
          -0.42386819805729115,
          0.5232298396360751,
          0.21292269274638467,
          -0.034357869388541386,
          -0.5788208604948493,
          0.07791883440114813,
          -0.6981570947601938,
          -0.5317306612920332,
          0.43391393165326936,
          0.7637127826341347,
          -0.7596942310308508,
          0.8527781798152999,
          0.7020285014278189,
          0.2742388606244771,
          -0.2792987446438373,
          -0.25414885178982816,
          0.8803445175000314,
          0.009195261224118047,
          -0.3870927261671769,
          0.6087837991827766,
          -0.9530580037924218,
          -0.7270867390490194,
          0.5380832797958078,
          -0.7410680385285969,
          -0.7225775032110103,
          -0.19174711223818075,
          -0.7125312941717539,
          -0.1786556670601871,
          0.1362421182941307,
          -0.15646038608688873,
          -0.1468937772336518,
          0.09016296296115275,
          -0.274159686094824,
          0.06498580218419177,
          -0.06403817980898166,
          -0.7699066065674061,
          0.18701064533015954,
          -0.5412948616653831,
          -0.25146455425153097,
          -0.06827761538358454,
          0.6548923742429407,
          0.7165173131591154,
          0.6279211358313719,
          -0.25322849639868317,
          -0.005576898027182145,
          -0.9000891132979958,
          -1.0324134424775522,
          0.4582392503006749,
          0.695875827898435,
          -0.3966540201396503,
          -0.8944325013781835,
          0.25644903212532677,
          -0.5753701235453702,
          -0.9328826522740227,
          -0.6851038724143561,
          0.8790766754522754,
          -0.7267029339560604,
          -0.7302196165885491,
          -0.40112583634384125,
          -0.37075238077415085,
          -0.4481123003004938,
          0.5837893029872077,
          0.8901847738081875,
          0.5548711665415215,
          0.07267771604475828,
          -0.9041765692791678,
          0.7677890570093743,
          -0.12964690036187904,
          -0.7741991426961992,
          0.42884574318458174,
          0.5467918887447251,
          0.7299033726358269,
          0.10027586950394982,
          -0.5714982794464888,
          0.6226046850956379,
          -0.20199090282703228,
          0.5985958684445623,
          -0.33665296751063833,
          -0.6801577882494586,
          -0.9100898921744721,
          0.42156809608770984,
          0.3689306618939615,
          0.7724883497121682,
          -0.2733836013842419,
          -0.22997597098089484,
          -0.09126703836723715,
          -0.43949262658215194,
          0.8255828034776242,
          0.490691135056275,
          -0.247493052062784,
          -0.37684512401032594,
          -0.1779902109993813,
          0.8572758220064299,
          0.6263719858733608,
          -0.37644749550247314,
          0.7067331605867547,
          0.4568977340430184,
          -0.8894899663651963,
          -0.09853590535335681,
          0.3730421310194833,
          0.48976724009133116,
          -0.3085150832835157,
          -0.867205208429764,
          -0.8690148585024712,
          -0.33880161339600057,
          -0.5300550648293109,
          0.8873027213677368,
          -0.6924896391487518,
          0.8069945088667312,
          -0.7722938490291155,
          0.48656207721484623,
          0.733603119178933,
          0.32870573708407846,
          0.47253627659519504,
          0.07549014666693843,
          -0.8245045806870603,
          0.3621528381916673,
          -0.9241801005813381,
          -0.747944126331397,
          -0.0743094049569651,
          -0.39333386913301627,
          0.5546963649681804,
          -0.833851764773209,
          -0.262086004973759,
          0.6153615965724347,
          -0.13664787929282038,
          0.15509030852203284,
          -0.03110851342977088,
          0.7100429631862333,
          0.8197282752264966,
          0.7151998712437375,
          -0.7334572344113847,
          -0.9503576267779518,
          0.9334752395430139,
          -0.5773222686959979,
          -0.6603131588678829,
          -0.5831403383461299,
          -0.06847849944312653
        ],
        [
          0.9683901595200273,
          -0.8060372864296399,
          0.11404858319527111,
          0.9148694009667535,
          -0.6228904018415529,
          -0.47820364722775865,
          -0.619977174167754,
          0.210283972803202,
          0.6369367798668382,
          -0.6169842533591305,
          0.6137299966623013,
          0.743922025608144,
          0.46179024379528677,
          0.6833819629177111,
          0.23932247451680236,
          0.24121917709566862,
          -0.6935071808162175,
          -0.6620102686543656,
          -0.15886392476148822,
          -0.1419353842726967,
          -0.6867695076519642,
          -0.7860025294030841,
          -0.608681427258305,
          -0.40762677544244097,
          -0.13289044124726956,
          0.448392775184137,
          -0.03913338725266646,
          0.4432464792823687,
          -0.20370992303165414,
          -0.2953084638442931,
          -0.27000656473701,
          0.7744667272873427,
          0.9602292224053679,
          0.20668065896456644,
          -0.10361717443143803,
          -0.25503713677366324,
          0.7897645914391975,
          -0.03065233829613012,
          0.3526377976251913,
          -0.4746992353585549,
          -0.5808619906735248,
          -0.42073646564913925,
          0.5398435528961936,
          -1.0000515894861837,
          -0.7640768675151981,
          -0.9686754895910503,
          -0.033488966893830706,
          -0.32446535769538587,
          0.34818734424003867,
          -0.8312927581323046,
          0.34961521020144376,
          0.8377192796993898,
          0.9083325152692527,
          -0.7354273212701483,
          0.2986189011752347,
          0.6701875498268901,
          -0.44347424357843757,
          -0.4095862271263391,
          -0.5141949183296792,
          -0.9121562256396207,
          -0.9870209202854814,
          -0.8455314400393958,
          -0.4673871190741785,
          -0.9735800432659714,
          -0.3931968110608226,
          -0.17468947220998052,
          -0.6669137870470596,
          -0.8625724564261384,
          -0.1288694298490203,
          -0.22496928166439775,
          -0.7241617521052137,
          -1.03267388292624,
          -0.02884229259468584,
          0.5565089593408348,
          -1.1271803325161538,
          -0.34972596501052344,
          0.1810353332779615,
          -0.27678532811925766,
          -0.10498689300090812,
          0.8012481003034854,
          0.6208597970910384,
          -0.021321256104533948,
          -0.45047665594690844,
          -0.5233483258000695,
          0.8366731557036555,
          0.33218323869514954,
          -0.7799383721204052,
          -0.18111065170150686,
          0.04943321892753971,
          -0.11366972332422165,
          0.22995410329826171,
          0.3118351213275803,
          0.3357925838969921,
          0.37030082218442095,
          0.44596206861048787,
          -0.9381208373827798,
          -0.7823718068190768,
          -0.0015632614695714876,
          -0.057168060372285244,
          0.8069223676506604,
          0.10989286054284911,
          -1.0891987604245825,
          -0.8335002218463137,
          -1.0012314295275853,
          -0.8352287423760787,
          -0.029276989271577753,
          -0.18710866439055743,
          0.6566990593679314,
          -0.8882814374119289,
          0.6184491866892585,
          0.48982083565547896,
          -0.5485076215186315,
          -0.9395145170663448,
          0.8653368509411767,
          -0.6319420874266419,
          0.21500238250354853,
          0.13149312539157298,
          -0.3110634502995451,
          -0.12020189277774396,
          -0.9636922169314287,
          -0.40711218942589267,
          -0.9153215307803481,
          -0.8358530202244293,
          -0.3491743582225895,
          0.6727088809415727,
          -0.559681528893536,
          0.06009933678836898,
          0.09314706864271503,
          -0.3339734311844099,
          -0.512792453957091,
          -1.155254276869209,
          0.48703517730399154,
          0.17533678355757099,
          0.7190773120777082,
          0.17494469396401344,
          0.18134805286982944,
          0.1728902217435774,
          -0.005778235280803079,
          0.40293439526995156,
          -0.22656448204029367,
          -0.741948380676936,
          -0.2942254304115086,
          -0.604408910543484,
          0.36144918828965933,
          0.7434354942174499,
          -0.3104033336197287,
          0.9195606306984697,
          0.10801691029784487,
          -0.9414419040496805,
          -0.9454604635644444,
          -0.11734229385151691,
          -0.6632425809848729,
          -0.6288574400070494,
          0.5218957741799116,
          -0.12873635692851762,
          -0.48115038021049483,
          0.6365079578564159,
          -0.5058554011731196,
          -0.8651261402774382,
          0.24648669098311216,
          0.9074674684278061,
          0.879989820101849,
          0.44549245511747576,
          -0.31119527091677757,
          0.2054544442557958,
          -0.062200415289617124,
          -0.49964101645794257,
          -0.017816950724990566,
          0.9299101333189497,
          0.14846780314059504,
          -0.989109183300211,
          -0.15115285034908954,
          0.7030424366190378,
          0.22347120358836525,
          -0.43284128590496734,
          -0.1374301452052813,
          0.6389010138242694,
          -0.886135049999971,
          -0.3930127186661824,
          0.29551661580249605,
          0.030992207583387665,
          -0.13611658009410468,
          0.22207025808309336,
          0.3462696059777002,
          0.3083583762273543,
          -0.8085020428579207,
          -0.4219133684654696,
          0.26993376530962265,
          0.4987189487413907,
          -0.8140123906676512,
          -0.2912924710168573,
          0.6862919459445909,
          -0.6437510114083046,
          0.04725739728786726,
          -0.5518542777968725,
          0.654991252386365,
          0.3942204351516918,
          0.638668701157342,
          0.5513059248740615,
          -0.8727061679602812,
          0.3738135034343322,
          0.3790764949226144,
          0.5537766749837262,
          -0.6718973242517822,
          -0.7521756878171623,
          -0.3036194389379443,
          -0.7036329865316775,
          0.07760006708782854,
          0.3487612630628578,
          -0.16091049651378658,
          0.39581297266117144,
          -0.7062547197627573,
          -0.06603850105724622,
          0.16021821871698527,
          -0.4426451607769202,
          -0.748705677128399,
          0.5120155914032221,
          -0.3099479736395358,
          -0.4257548820086926,
          0.2878180096381897,
          0.7445404386874351,
          -0.8784162436472445,
          0.833850799428302,
          0.11681185183844045,
          -0.359626959006464,
          0.6502509231178975,
          -0.7239283010321405,
          -0.3089874609200338,
          0.9639564755183381,
          -0.949782694238356,
          -0.3191634092891911,
          -0.384902080536455,
          -0.5000238763461268,
          -0.507379210744918,
          0.2989920054625519,
          0.6185269095079283,
          -0.14248989987688326,
          0.29080179296127384,
          -0.0868683531159248,
          -0.020762531081202403,
          0.1798506651768765,
          -0.7275130616447403,
          -0.8194256810760043,
          0.11752846411194022,
          0.40236689351920196,
          0.6056719616947184,
          -0.43856378401372864,
          -0.37421691650048966,
          0.20743835021737858,
          -0.40398279404479265,
          0.770331124111433,
          0.6114030819131333,
          0.9527127354165672,
          0.5092673214375254,
          0.3371566720096726,
          -0.9442087587220951,
          -0.433943297281016,
          -0.5066987420833544,
          -0.8758619404551514,
          0.4358050319122586,
          -0.427473794647191,
          -0.49212539451890536,
          0.6976556436360069,
          0.6939881487920061,
          -0.022928583063254696,
          0.8054053334072154,
          0.6684921295566538,
          0.715344373722509,
          0.43371028616967916,
          0.48900570527315185,
          -0.8218451018406387,
          -0.014126180897693666,
          0.08776551903395552,
          0.4709710173835704,
          -0.2920046253129134,
          0.16666943909199164,
          0.9632717396611138,
          -0.6383125095929236,
          -0.7903208199467445,
          0.34406645288592447,
          -0.5205994704843095,
          0.9943877248565212,
          0.41559516559479537,
          -0.5904489773449795,
          0.24120071484492955,
          0.6935581449979951,
          0.5994946323560882,
          0.47616922677987567,
          0.3856294677775331,
          0.94975095971529,
          -0.01954726535682862,
          -0.10588898739871014,
          1.255679903591825,
          -0.3269965085175442,
          0.29637112208026545,
          -0.7105310708502056,
          -0.7023517708623375,
          -0.9801614088117898,
          0.03792786813352274,
          -0.06028944843924613,
          -0.6126426240723947,
          -0.5889991137518303,
          -0.3479165151598369,
          -0.4587705843937883,
          0.08896678350094842,
          -0.3068468764892654,
          0.8332994963175293,
          0.45834799953937944,
          -0.7974278252215456,
          0.6367944338199547,
          -0.22504885926029594,
          -0.20143632169880243,
          0.9645071015192115,
          0.5364072948085281,
          -0.6809054870217393,
          0.481162262156138,
          0.32658013783001066,
          -0.0028890609718187797,
          0.7987334206786423,
          0.9560982547946213,
          1.3351454731334655,
          1.0859614705294154,
          0.8330481590157593,
          0.005420748447088329,
          0.29414809763671473,
          -0.865800877654441,
          -0.12710536709790868,
          0.6920782467504079,
          -0.871906552544685,
          -0.10890439032597063,
          -0.543509916003682,
          -0.599736308212588,
          -0.22494381133844388,
          -0.2992771902579388,
          -0.04951377154681774,
          0.019207767792035473,
          0.004530576842605605,
          -0.392584529626836,
          0.8731522885234102,
          -0.7076042824707254,
          -0.506148947453212,
          0.1516060864457478,
          -0.3997170522650953,
          0.23205349859266694,
          -0.09627649270281183,
          -0.10162451442747557,
          -0.24464328971335225,
          0.20162757923100852,
          -0.4459227889084602,
          -0.7421941614644323,
          -0.5770491386402784,
          -0.17891759744254931,
          0.038719472135838165,
          -0.5764925756073667,
          -0.4827585428904998,
          -0.6734473411231425,
          0.3296245393615402,
          0.15892890333677753,
          0.39796505158330403,
          0.3537618605419405,
          -0.6917674327876964,
          0.6507245185251749,
          -0.04353852852346728,
          -0.1436288639765363,
          0.5350856345952155,
          -0.18333655571785856,
          -0.6831380087115337,
          0.08100409279343612,
          0.5975547988363931,
          0.915886823627063,
          0.021911483628448334,
          0.16425839601941328,
          0.4742637133917163,
          0.8194994124990134,
          0.0702868050941258,
          0.3939666951975835,
          0.3270209671341782,
          1.0737970461022093,
          0.7193627295744609,
          -0.04758789684209913,
          1.0787080374404203,
          0.47654388931022634,
          -0.6960048475140669,
          -0.22705399208388752,
          0.4874553343075903,
          -0.8658349549119606,
          0.8542888860111923,
          -0.6899828044726265,
          -0.4265931935804769,
          -0.6861180074705944,
          -0.8958690498615568,
          -0.8342627267174879,
          -0.8145456172953098,
          0.06244242588210591,
          -0.6631196184451884,
          -0.9188459752915707,
          -0.7825839358065851,
          -0.44685999031042845,
          -0.7050915034820701,
          0.5860423312773017,
          0.13812794160842165,
          0.6913463782621634,
          0.44641598643285757,
          -0.6398861846692593,
          0.283940335985626,
          0.468099398905815,
          -0.6740822771100552,
          -0.57045286568423,
          -0.16587277581135054,
          0.7714673475689727,
          0.8349082344496476,
          0.5899849834960013,
          -0.23093389072767606,
          0.09239590061119042,
          -0.8614722678889625,
          -0.6812747406754741,
          0.6070047663672611,
          -0.31651637505035385,
          0.8197422234885332,
          0.06327776655328393,
          0.11702535899239486,
          -0.8517753835404585,
          0.5378559463263364,
          0.35092412940160944,
          0.5808059819374441,
          0.3248842678101558,
          0.7163077401114141,
          -0.42766735665430716,
          0.20011937290799242,
          0.5283173937465457,
          -0.6135387433410447,
          0.754953120592787,
          -0.4810710911016727,
          0.932555138407709,
          0.2513484150806391,
          0.1098044900286126,
          -0.37753895090911443,
          -0.09450754539064657,
          -0.974046776509034,
          -0.7400748023411243,
          0.048213864719307074,
          -0.2900654273701158,
          -0.14927356170669226,
          -0.12995056188851137,
          0.09292645468280154,
          -0.03467282998774201,
          0.4253474411544229,
          -0.751010895938485,
          0.028019710130192887,
          0.48495987367160165,
          -0.42092455215529734,
          0.671963246592227,
          0.8301661313699932,
          -0.42607029806344054,
          0.29311997986968374,
          0.6632339453559464,
          0.20315952285088013,
          -0.553878026976554,
          -0.9597578536433264,
          0.29131041949661307,
          -0.1578339862203968,
          -0.4073398644660051,
          0.6416996309159706,
          0.47906727972571783,
          0.18854427725476242,
          0.38180428420763557,
          -0.926592717206091,
          0.6302027920301533,
          0.2076830484608948,
          -0.5083785380632031,
          0.8603259552626491,
          0.5519829979786373,
          -0.483000296711234,
          -0.244848320602466,
          -0.8306181657594859,
          -0.47730259142778775,
          -0.6105965603205461,
          -0.1277649129880576,
          -0.6169895087776207,
          -0.8769325452027332,
          0.7366119641169145,
          -0.30356657597054787,
          0.7596312835454483,
          -0.5279393559213228,
          0.35279651010395924,
          -0.498228087608334,
          -0.5661219832367883,
          0.3260030001867157,
          -0.7899317054238659,
          -0.2573233820909362,
          -0.1575746679793473,
          -0.1607293252838336,
          -0.48504447128969114,
          -0.9470164112406103,
          -1.0557090636865607,
          0.5593785752403306,
          0.6095170009169117,
          -0.4000940187747457,
          0.7927419729725333,
          0.08469891665161333,
          -0.5000165498559941,
          0.7655688263868471,
          0.028581128604052368,
          -0.7930949530653715,
          0.6765802585432397,
          0.7423172173604446,
          -0.11343301004153661,
          0.7473879920634241,
          0.8494621792611888,
          -0.9239706499056093,
          -1.0546309822578697,
          -0.14689668689079963,
          -0.8123191542089259,
          -0.8218084334831494,
          -0.30270846353688985,
          0.33095513802434445,
          0.19397813621496904,
          -0.5074994626491691,
          -0.5130350806809009,
          -1.0729874176924425,
          -0.018690023472866378,
          0.632000402986272,
          -0.5892980387875848,
          0.5118754142498034,
          0.5179102213641701,
          -0.2351172245091462,
          -1.0040374524120035,
          -0.9514361157870289,
          0.7739477691527679,
          -0.9139171533108247,
          -0.7458416541466159,
          0.3290562634832842,
          0.6068370972762289,
          -0.7440749985291908,
          0.753417980968246,
          -0.7318246635774242,
          0.23982867114439024,
          -0.3258236045212789,
          -0.04986202095477091,
          -0.5132190984799019,
          -0.7612477049185405,
          -0.20080429497622118,
          -0.7148224013130382,
          -0.8267322893718286,
          0.46814659079368576,
          0.5947895641791736,
          0.3569616249992425,
          0.5458969643880396,
          0.041709570079513925,
          0.7546333963191639,
          -0.879283827507593,
          -0.973569850832482,
          -1.0121371531337529,
          -0.06705952132304249,
          -0.4539707423945512,
          -0.1542890075527393,
          0.7721105761185927,
          0.9319941499607769,
          0.7099581869122665,
          0.9113222691893426,
          0.8135909477717806,
          0.11939229310013122,
          -0.4573681036735384,
          -0.8942499685013576,
          -0.039224776561598264,
          0.4375893514280714,
          -1.1163067377652576,
          0.5458178556800881,
          -0.33920096325460275,
          -0.2743275332795521,
          -0.3183739187155062,
          -0.7420284855336946,
          -0.22036231348438465,
          -0.48624030936606366,
          -0.781345744791629,
          -0.8163107165077573,
          0.7179180189644854,
          -0.44830177939351784,
          -0.7600763096168308,
          0.3496603634965165,
          -0.39207591901993855,
          -0.10271931653920245,
          -0.8818546027646986,
          0.5882173108150782,
          0.26293136688581914,
          -0.7691172373240017,
          0.7426965944230919,
          -0.8395767139398742,
          0.3599525442700453,
          0.7789305079177216,
          0.2738325434539388,
          -0.6897522443573818,
          0.9242955684011879,
          -1.0053653271379943,
          0.16986570310853644,
          0.4838467826446658,
          -1.0308644704876346,
          0.6380948763578858,
          0.09397281229614277,
          0.36805367641826414,
          -0.6714271678225959,
          -0.8315439418631476,
          0.4958744886812327,
          -0.24298722297456612,
          -0.31132322026948545,
          -0.17517078128927888,
          0.6800729693436589,
          -0.7073954254498044,
          -0.5210570172096695,
          0.602585008480466,
          0.11291522868757645,
          -0.3462392269807484,
          -0.12339557717489204,
          0.37064945563321766,
          -0.5099582924024252,
          -0.6661590848406405,
          0.6506285125889013,
          -0.2150665256716886,
          -0.18791632279509596,
          -0.8127386379536659,
          0.2292662574735423,
          0.090568702795004,
          -1.0597161094087932,
          -0.9021533454775198,
          -0.019620019250590426,
          -0.7459771795953878,
          -0.8899860189651495,
          -0.9716626125155201,
          0.7874155200688299,
          0.6640350383566976,
          -0.7336355115836027,
          0.3581049668015488,
          0.46943993267947876,
          -0.41748908573654936,
          -0.9521231540852239,
          -0.4681026473896873,
          0.7848347631728506,
          -0.7329481840902538,
          -0.23833275870551773,
          0.8771351432222527,
          0.8466163366249326,
          -0.2494175929046289,
          -0.22357874425428673,
          0.3147514684123876,
          0.07831413965895262,
          -0.41976966723411335,
          0.7947731371734528,
          0.059163369635386154,
          -0.8784526170517488,
          -0.8856837340674307,
          -0.5098541211569759,
          0.45441012434152067,
          -0.2911858735734799,
          -0.9433992297170406,
          -0.7831155294779492,
          -0.865160554297551,
          0.6667225189695822,
          -0.9111412550492582,
          0.04776704579808029,
          -1.0373569625433843,
          -0.3559360249379385,
          0.7151527222710512,
          -0.5408090906254603,
          0.6843864386139745,
          0.2994424147034609,
          -0.03197075029647757,
          -0.24174116048889782,
          -0.1009658566515886,
          -0.15355598065673792,
          0.167849190678547,
          0.42538959720944625,
          0.7155758079680454,
          -0.14485668739669988,
          -0.8631692818082959,
          -0.06363390835720217,
          0.17575739338087004,
          -0.2134890772922032,
          0.7951273082195282,
          -0.24401847484243464,
          0.055266667570291236,
          0.5555726594914029,
          -0.39798494204842516,
          0.7013235595185068,
          0.7141651269920698,
          0.15487636553214906,
          0.40622178062910613,
          -0.8233662389189417,
          0.8079117525318343,
          -0.8564342692648388,
          0.07748735850053129,
          -0.7449337732668233,
          -0.720750764031494,
          0.32431652307087794,
          0.8640899835531775,
          0.09715951321041295,
          0.1382190527433647,
          -0.9060221156708479,
          0.7353665715689393,
          0.06343926010495395,
          -0.257214509465838,
          -0.17536742727997456,
          -0.7651531314343649,
          -0.7197536636454296,
          0.6170010447152658,
          -0.586304731613728,
          -0.5346729236660264,
          -0.036062161772718905,
          0.08882414664341906,
          0.1521813179020519,
          0.42098738844880385,
          -0.1779219991596039,
          0.4225255819096383,
          -0.8854928596138165,
          0.2611566545963867,
          -0.9878437007332439,
          0.8302179004447537,
          0.7895827782012788,
          0.11332725998073014,
          0.5696077889311402,
          0.473189261731969,
          0.5103386792214214,
          1.0203532602012206,
          0.8830446148321578,
          0.8065924748891051,
          -0.9428399012444757,
          -0.1640679499310934,
          0.5937447442248367,
          -0.24661787538284752,
          0.6330808356992037,
          -0.02950363121822841,
          -0.9282189272281212,
          -0.4785370307861254,
          0.4243614339324084,
          0.6817546238503264,
          0.7173428519700983,
          0.5749561428841956,
          0.26011996793741876,
          -0.5223498108043675,
          -0.32403093196462185,
          -0.7249189574230187,
          -0.7643422052872473,
          -0.08237932822017274,
          -0.6724355225236537,
          -0.4723342314211565,
          -0.3861565489748607,
          0.27327725719665097,
          -0.8089255810117448,
          -0.2741906857189846,
          -0.8199935923389401,
          0.30035717832111825,
          0.5959550783043548,
          0.8284662267234959,
          0.664992837206713,
          -0.17224550248460774,
          -0.13235369756146403,
          -0.5712977730037271,
          -0.13704652003483941,
          0.11405845815893079,
          0.6726511036583243,
          0.8703886791220263,
          -0.8269557511965808,
          0.5959030225138168,
          0.35348083607872943,
          -0.3472272677079214,
          0.2842183489644071,
          0.1556190132570439,
          -0.1005311967663107,
          -0.30423218947220754,
          0.7767890598526405,
          -0.7198673809454491,
          0.8563658292954774,
          -0.18344169828290008,
          0.07927506623630716,
          0.10587851824237339,
          0.6605800938399061,
          -0.4348510575519836,
          -0.08518930944498174,
          -0.6096103451022682,
          -0.11349427919756193,
          0.4508550022715698,
          0.8103332763072393,
          -0.2968208932863347,
          -0.01959630781874655,
          -0.2606735939618946
        ],
        [
          0.9119721960199749,
          0.606451555272498,
          0.05563777500553391,
          0.5937641921892309,
          0.2752918974863703,
          -0.5664455068682934,
          -0.5432437227982225,
          -0.4641956597426722,
          0.7790605103209538,
          -0.04867819052822542,
          -0.6758449794686392,
          0.2392651570010722,
          -0.090725239604315,
          0.3466921510525638,
          -0.04555485930414228,
          0.4907386619407514,
          -0.5847096016349329,
          0.42142895994725615,
          -0.3837863756204753,
          0.28125793283048417,
          -0.1460801880435412,
          -0.22980440774319655,
          0.19774567521526246,
          0.7293186485906449,
          0.7714313628804357,
          0.5310802423569387,
          0.31588209529194256,
          0.22175192084553252,
          0.8892921859834262,
          0.33964557089974834,
          0.14401812177244588,
          -0.8712594123348811,
          -0.10132051904632311,
          -0.9996100930091982,
          0.2156290789813715,
          0.9871092790732545,
          -0.8780342541994761,
          0.9740357523852321,
          0.5770856075398378,
          -0.3892105369459602,
          -0.3669461634397536,
          -0.6145741806338277,
          0.4148616371839994,
          0.29142009102003097,
          0.7236032801454833,
          0.3272974265396457,
          0.7704504947541054,
          0.3231055941862628,
          -0.7627822423044294,
          0.2695430302222782,
          0.37876420153593027,
          -0.2492557869612333,
          -0.9859171347648177,
          -0.5583850505501706,
          0.9739272053196855,
          0.48101937187715116,
          0.2644958206271899,
          -0.2675322875966839,
          0.055616016519446365,
          0.766123347740479,
          -0.3845302650816449,
          0.4452204892123808,
          -0.8585803768320304,
          0.9750505296136143,
          -0.33108784158683635,
          -0.08535452598737368,
          -0.21878065186580847,
          0.6754084002094886,
          -0.06452941514119695,
          -0.16067293018368572,
          0.5905168982619048,
          0.3054015825983606,
          0.030085906285161813,
          -0.5147353622034609,
          -0.6187281895817224,
          0.7060511321667393,
          -0.5798604903956655,
          -0.611715465283947,
          0.4861696966410307,
          -0.8819932143407695,
          0.5995210376982887,
          0.26325664144495375,
          -0.7802208800023829,
          -0.9532392691480198,
          0.7875540229266065,
          -0.567073860814169,
          -0.4166453843364093,
          0.13591120824625147,
          -0.2541564658988005,
          0.8551378579833728,
          -0.12657979335006386,
          -0.9521266179148471,
          0.3291894814519462,
          0.8502018864913616,
          0.9033361851123495,
          -0.07825361877583352,
          -0.7226778796272647,
          0.543073859650253,
          0.7378177027407237,
          0.8375704510673578,
          -0.47952279653176394,
          0.3577926894094734,
          -0.6064848486350957,
          -1.0476689290389525,
          0.021961133719680757,
